SNNS network definition file V1.4-3D
generated at Thu Nov  6 13:25:56 2014

network name : Abalone Standard
source files :
no. of units : 17
no. of connections : 72
no. of unit types : 0
no. of site types : 0


learning function : Std_Backpropagation
update function   : Topological_Order


unit default section :

act      | bias     | st | subnet | layer | act func     | out func
---------|----------|----|--------|-------|--------------|-------------
 0,00000 |  0,00000 | h  |      0 |     1 | Act_Logistic | Out_Identity 
---------|----------|----|--------|-------|--------------|-------------


unit definition section :

no. | typeName | unitName | act      | bias     | st | position | act func     | out func | sites
----|----------|----------|----------|----------|----|----------|--------------|----------|-------
  1 |          | noName   |  0,00000 |  0,31868 | i  | 1,1,1    |||
  2 |          | noName   |  0,00000 | -0,07436 | i  | 1,2,1    |||
  3 |          | noName   |  0,00000 |  0,78025 | i  | 1,3,1    |||
  4 |          | noName   |  0,00000 | -0,86473 | i  | 1,4,1    |||
  5 |          | noName   |  0,00000 |  0,39686 | i  | 1,5,1    |||
  6 |          | noName   |  0,00000 | -0,08100 | i  | 1,6,1    |||
  7 |          | noName   |  0,00000 |  0,63123 | i  | 1,7,1    |||
  8 |          | noName   |  0,00000 |  0,32137 | i  | 1,8,1    |||
  9 |          | noName   |  0,69597 |  0,82818 | h  | 3,1,1    |||
 10 |          | noName   |  0,12803 | -1,91846 | h  | 3,2,1    |||
 11 |          | noName   |  0,73884 |  1,03994 | h  | 3,3,1    |||
 12 |          | noName   |  0,11174 | -2,07313 | h  | 3,4,1    |||
 13 |          | noName   |  0,68294 |  0,76734 | h  | 3,5,1    |||
 14 |          | noName   |  0,33980 | -0,66420 | h  | 3,6,1    |||
 15 |          | noName   |  0,66782 |  0,69834 | h  | 3,7,1    |||
 16 |          | noName   |  0,58355 |  0,33735 | h  | 3,8,1    |||
 17 |          | noName   |  8,77550 |  2,62773 | o  | 5,4,1    | Act_Identity |          | 
----|----------|----------|----------|----------|----|----------|--------------|----------|-------


connection definition section :

target | site | source:weight
-------|------|---------------------------------------------------------------------------------------------------------------------
     9 |      |  8: 1,89164,  7: 0,03796,  6:-0,47484,  5:-0,23870,  4: 0,95225,  3: 0,28301,  2:-0,67264,  1: 1,44192
    10 |      |  8: 0,91018,  7: 0,64018,  6:-3,23568,  5: 1,69982,  4: 0,09971,  3:-0,71488,  2: 0,43541,  1:-1,71697
    11 |      |  8:-0,27677,  7: 0,97577,  6: 0,64154,  5: 1,87386,  4:-0,16126,  3: 0,68993,  2: 0,52775,  1: 1,70180
    12 |      |  8: 2,25973,  7:-0,82621,  6: 0,09662,  5: 0,50773,  4:-0,63501,  3: 0,34350,  2: 0,38184,  1: 0,35071
    13 |      |  8: 0,15752,  7:-0,22273,  6: 0,53395,  5: 1,93270,  4:-0,70343,  3:-0,03809,  2: 0,35027,  1: 1,50620
    14 |      |  8: 0,01152,  7:-0,60858,  6: 0,41414,  5:-1,06033,  4: 0,41722,  3: 0,24753,  2:-0,16970,  1: 0,61588
    15 |      |  8:-0,11485,  7:-0,70988,  6: 0,67711,  5: 0,94966,  4:-0,86707,  3:-0,24731,  2:-0,93696,  1:-0,68749
    16 |      |  8: 0,47075,  7: 0,73489,  6:-0,61136,  5: 0,53354,  4:-0,93795,  3: 0,98636,  2: 0,37756,  1:-0,21166
    17 |      | 16: 1,20518, 15: 1,70506, 14:-0,39011, 13: 2,87675, 12: 3,06058, 11: 2,78502, 10: 3,87038,  9: 3,17004
-------|------|---------------------------------------------------------------------------------------------------------------------


layer definition section :

layer | unitNo.
------|----------------------------------------------------------------------------------------------------------------------------
    2 |  9, 10, 11, 12, 13, 14, 15, 16
    3 | 17
------|----------------------------------------------------------------------------------------------------------------------------
