SNNS network definition file V1.4-3D
generated at Thu Nov  6 13:21:20 2014

network name : Abalone Normalized
source files :
no. of units : 17
no. of connections : 72
no. of unit types : 0
no. of site types : 0


learning function : Std_Backpropagation
update function   : Topological_Order


unit default section :

act      | bias     | st | subnet | layer | act func     | out func
---------|----------|----|--------|-------|--------------|-------------
 0,00000 |  0,00000 | h  |      0 |     1 | Act_Logistic | Out_Identity 
---------|----------|----|--------|-------|--------------|-------------


unit definition section :

no. | typeName | unitName | act      | bias     | st | position | act func     | out func | sites
----|----------|----------|----------|----------|----|----------|--------------|----------|-------
  1 |          | noName   |  0,00000 | -0,10251 | i  | 1,1,1    |||
  2 |          | noName   |  0,00000 |  0,02935 | i  | 1,2,1    |||
  3 |          | noName   |  0,00000 | -0,15290 | i  | 1,3,1    |||
  4 |          | noName   |  0,00000 | -0,85464 | i  | 1,4,1    |||
  5 |          | noName   |  0,00000 |  0,75930 | i  | 1,5,1    |||
  6 |          | noName   |  0,00000 | -0,61865 | i  | 1,6,1    |||
  7 |          | noName   |  0,00000 |  0,34093 | i  | 1,7,1    |||
  8 |          | noName   |  0,00000 |  0,24382 | i  | 1,8,1    |||
  9 |          | noName   |  0,30393 | -0,82863 | h  | 3,1,1    |||
 10 |          | noName   |  0,53184 |  0,12752 | h  | 3,2,1    |||
 11 |          | noName   |  0,56218 |  0,25000 | h  | 3,3,1    |||
 12 |          | noName   |  0,38120 | -0,48446 | h  | 3,4,1    |||
 13 |          | noName   |  0,30164 | -0,83949 | h  | 3,5,1    |||
 14 |          | noName   |  0,32121 | -0,74822 | h  | 3,6,1    |||
 15 |          | noName   |  0,67768 |  0,74313 | h  | 3,7,1    |||
 16 |          | noName   |  0,52678 |  0,10723 | h  | 3,8,1    |||
 17 |          | noName   | -0,00099 |  1,03605 | o  | 5,4,1    | Act_Identity |          | 
----|----------|----------|----------|----------|----|----------|--------------|----------|-------


connection definition section :

target | site | source:weight
-------|------|---------------------------------------------------------------------------------------------------------------------
     9 |      |  8: 0,26148,  7:-0,98658,  6:-0,24722,  5: 0,68592,  4: 0,77604,  3:-0,66791,  2:-0,52956,  1:-0,95271
    10 |      |  8: 0,70254,  7:-0,23854,  6: 0,88839,  5: 0,37117,  4: 0,64696,  3: 0,36500,  2: 0,80010,  1:-0,90706
    11 |      |  8:-0,28970,  7: 0,03954,  6: 0,93893,  5: 0,80856,  4:-0,10637,  3:-0,16251,  2:-0,36316,  1:-0,94440
    12 |      |  8: 0,03127,  7:-0,50951,  6:-0,08617,  5:-0,74159,  4:-0,09390,  3:-0,78827,  2: 0,51194,  1:-0,37011
    13 |      |  8: 0,40559,  7: 0,76067,  6: 0,00763,  5: 0,75248,  4:-0,24340,  3:-0,36792,  2:-0,75219,  1: 0,24314
    14 |      |  8:-0,43407,  7:-0,18594,  6:-0,97507,  5:-0,01945,  4:-0,22229,  3:-0,36578,  2:-0,48445,  1:-0,25000
    15 |      |  8: 0,01666,  7: 0,81247,  6:-0,43591,  5: 0,27115,  4: 0,75775,  3: 0,83572,  2:-0,34833,  1: 0,32973
    16 |      |  8: 0,64496,  7: 0,29815,  6: 0,35758,  5: 0,69550,  4: 0,36764,  3:-0,87523,  2:-0,80154,  1:-1,01488
    17 |      | 16:-0,54755, 15:-0,08921, 14:-0,48334, 13: 0,31524, 12: 0,07573, 11: 0,39914, 10: 0,19487,  9: 0,16835
-------|------|---------------------------------------------------------------------------------------------------------------------


layer definition section :

layer | unitNo.
------|----------------------------------------------------------------------------------------------------------------------------
    2 |  9, 10, 11, 12, 13, 14, 15, 16
    3 | 17
------|----------------------------------------------------------------------------------------------------------------------------
