SNNS network definition file V1.4-3D
generated at Fri Nov 21 14:30:24 2014

network name : ABALONE NORMALIZADA 8H
source files :
no. of units : 17
no. of connections : 72
no. of unit types : 0
no. of site types : 0


learning function : Std_Backpropagation
update function   : Topological_Order


unit default section :

act      | bias     | st | subnet | layer | act func     | out func
---------|----------|----|--------|-------|--------------|-------------
 0.00000 |  0.00000 | h  |      0 |     1 | Act_Logistic | Out_Identity 
---------|----------|----|--------|-------|--------------|-------------


unit definition section :

no. | typeName | unitName | act      | bias     | st | position | act func     | out func | sites
----|----------|----------|----------|----------|----|----------|--------------|----------|-------
  1 |          | noName   |  1.00000 |  0.89894 | i  | 1,1,1    |||
  2 |          | noName   |  0.50000 |  0.78401 | i  | 1,2,1    |||
  3 |          | noName   |  0.48739 | -0.18677 | i  | 1,3,1    |||
  4 |          | noName   |  0.07965 |  0.38803 | i  | 1,4,1    |||
  5 |          | noName   |  0.13370 | -0.44452 | i  | 1,5,1    |||
  6 |          | noName   |  0.09549 | -0.55903 | i  | 1,6,1    |||
  7 |          | noName   |  0.09677 | -0.23334 | i  | 1,7,1    |||
  8 |          | noName   |  0.12307 | -0.96922 | i  | 1,8,1    |||
  9 |          | noName   |  0.70086 |  0.47376 | h  | 2,1,1    |||
 10 |          | noName   |  0.78151 | -0.21958 | h  | 2,2,1    |||
 11 |          | noName   |  0.23512 |  0.14705 | h  | 2,3,1    |||
 12 |          | noName   |  0.61639 |  0.17480 | h  | 2,4,1    |||
 13 |          | noName   |  0.41834 | -0.30946 | h  | 2,5,1    |||
 14 |          | noName   |  0.51887 |  0.03468 | h  | 2,6,1    |||
 15 |          | noName   |  0.23385 | -0.65840 | h  | 2,7,1    |||
 16 |          | noName   |  0.33817 | -0.33246 | h  | 2,8,1    |||
 17 |          | noName   |  0.27837 | -1.50172 | o  | 3,1,1    | Act_Identity |          | 
----|----------|----------|----------|----------|----|----------|--------------|----------|-------


connection definition section :

target | site | source:weight
-------|------|---------------------------------------------------------------------------------------------------------------------
     9 |      |  8:-0.76814,  7:-0.01617,  6:-0.73030,  5:-0.28960,  4: 0.50449,  3:-0.72916,  2: 0.75940,  1: 0.51769
    10 |      |  8: 0.33205,  7: 0.87311,  6: 0.00141,  5: 1.13114,  4: 1.19935,  3: 0.89570,  2: 1.27680,  1: 0.04686
    11 |      |  8:-0.16404,  7:-0.26912,  6:-0.34270,  5:-0.50016,  4: 1.03165,  3: 0.08088,  2:-0.85926,  1:-0.87279
    12 |      |  8:-0.91361,  7: 0.06096,  6: 0.39790,  5:-0.74116,  4:-0.72355,  3: 0.75281,  2: 0.74856,  1:-0.21648
    13 |      |  8:-0.24908,  7:-0.10825,  6: 0.88611,  5:-1.42617,  4: 0.23278,  3: 0.23053,  2: 0.03943,  1:-0.02356
    14 |      |  8: 0.69682,  7:-0.29596,  6:-1.19940,  5:-0.34945,  4:-0.71604,  3:-0.08171,  2:-0.05830,  1: 0.27100
    15 |      |  8:-1.09237,  7: 0.46156,  6: 0.36653,  5:-0.92790,  4: 0.54316,  3:-0.61443,  2: 0.23628,  1:-0.21138
    16 |      |  8: 0.65443,  7:-1.05940,  6:-1.20882,  5:-0.73634,  4: 0.87777,  3: 0.16766,  2:-0.54712,  1: 0.01878
    17 |      | 16: 0.93173, 15:-0.53616, 14: 0.48050, 13:-1.62172, 12:-0.53953, 11: 0.39203, 10: 1.14914,  9:-0.19960
-------|------|---------------------------------------------------------------------------------------------------------------------


layer definition section :

layer | unitNo.
------|----------------------------------------------------------------------------------------------------------------------------
    2 |  9, 10, 11, 12, 13, 14, 15, 16
    3 | 17
------|----------------------------------------------------------------------------------------------------------------------------
